,C1,C2,C3,C4,C5,C6,C7,C8,C9,C10,C11,C12,C13,C14,C15,C16,C17,C18,C19,C20,C21
C1,1.0,-0.22913246986924832,-0.008053983927091198,0.11936452111764975,-0.028525753046591773,-0.13956080126626194,-0.03975442510925155,-0.036094711213405274,-0.11919586576981121,-0.030563789914580284,0.24772971803048327,0.22477181009771052,-0.028204996624330236,-0.1452608020745291,-0.01165660404649591,-0.03572814534772644,0.16084896141879804,0.03813387375125378,0.015016324375690449,-0.18985070783052135,0.2781499664832018
C2,-0.2352985080467064,1.0,-0.18772364287764073,-0.4263690869669517,0.13828092249564375,0.3430050486044884,0.23871834331620542,0.1328998984589635,0.01556495864056182,-0.029488978499747673,-0.019338574459811245,-0.04748848677799913,0.12993272287358976,0.018013545327172923,0.15601678231374425,-0.03447170931660225,-0.019171608010674905,-0.1798134596725196,0.014485183790513013,-0.03925437867874378,0.003692996777123145
C3,-0.03806790634866128,-0.21063407829865657,1.0,0.28144383506548803,0.21814442889646876,-0.08676361390826871,-0.03898796193926009,-0.15960949104557345,-0.2434847616288081,-0.19971866205301708,-0.019659066350497648,-0.24519350821328484,-0.027662849911156737,0.23293638623650126,-0.011436395491852512,-0.035039668639612526,-0.01948994628505963,0.2325954680530872,0.20568346557509634,0.18524673772552055,-0.05635010107463334
C4,0.11054956639120031,-0.4298039646395039,0.29747684640201605,1.0,0.228626265543344,-0.15328440972301666,-0.37457635438008974,-0.32531571795520725,-0.38766770507583964,-0.0251356303767679,-0.016484893340806488,-0.04047240650334116,-0.023195946051851817,0.015345910444101392,-0.009590636171464387,-0.02938088067579916,0.1948128763714986,0.3708190745968877,0.012339036209924503,-0.03345563672765404,-0.06671909465744587
C5,-0.04224029545638815,0.13175969547548919,0.23735908997811753,0.22694351435017474,1.0,0.008836009695934165,0.1076357411277553,-0.03927809840075309,-0.27208319589555346,-0.033258489678782005,-0.021809330269714045,-0.05356300028882739,-0.0306923966417267,-0.16007833140933092,-0.012682458315047588,-0.0388794600684933,0.29867700927367097,0.041503112830082595,0.01634406769601079,-0.04427492639679912,0.0876787957853098
C6,-0.1855152550133541,0.30467886488772516,-0.1025733523159477,-0.18247571076320898,-0.02780784784412567,1.0,-0.038751622396882214,-0.0351850410282269,0.015723145476398633,-0.029794830709763114,-0.019540287897080733,-0.047976253207215595,0.18087102854937312,0.2725537173163696,-0.011367367293325272,-0.03482761800188908,-0.01937225973237735,0.03715968874728609,0.014628371120673098,-0.0396582967592572,0.003241119751631054
C7,-0.03184895865298569,0.25140470898026146,-0.00660940077478305,-0.36084364429304544,0.12749147203669278,0.006658982555029571,1.0,-0.029616566486602273,0.013232548074442836,-0.025079501898123652,-0.11399113039811296,-0.04038324260964491,0.1787179356759882,0.015322097450546638,-0.00956658276608742,-0.1609749238277335,-0.016304248819691256,-0.07853427661958623,-0.08488257452661484,-0.03338131485237524,-0.1026825742748383
C8,-0.03839045084559335,0.13678352973749333,-0.13217560764476294,-0.31848479797143614,-0.028212224452730826,0.00802839519276692,-0.03931902453592553,1.0,0.015952626286651388,0.48542943913581715,-0.019823003275978624,-0.048678897520316976,-0.027895047675822716,0.01847052308041998,-0.01152966130721597,-0.03533617518263658,-0.019651771952883094,0.03771416604221032,0.014852125442447824,0.1717468497670245,-0.09529181524301235
C9,-0.14915879325474843,-0.011141818025582065,-0.26215386286121695,-0.409155209214975,-0.2997968614154393,0.002921878504462272,-0.014170768586645592,-0.012861901345692749,1.0,-0.010890801347839856,-0.21725197724336986,-0.017539515731246652,-0.010040416711493489,0.006693952667644708,0.1706757493809859,0.12033442672768077,-0.4274179868284654,-0.3041884646949686,0.005382238302974543,-0.01449613750644775,-0.12166615968427635
C10,-0.03761658453778457,-0.030317759637233647,-0.1775479660300279,-0.022391594281443786,-0.027643012523940344,0.00786590915267874,-0.038527494179881765,0.48067873209826384,0.015627613437931478,1.0,-0.019424235849690986,-0.047695978077304635,-0.027332362929938316,0.018098552701151988,-0.1957590415697212,-0.03462398424704482,-0.019256747216983266,0.036950456521057176,0.16602935205314362,-0.03942613239336735,-0.005867129568192554
C11,0.2256927370670629,-0.0339141654560019,-0.008727612272171947,-0.025045881308663275,-0.030922358832430923,0.008804975832159728,-0.14064292820587654,-0.03912944555976252,-0.1926320509271105,-0.033133668645671355,1.0,-0.05335786642497256,-0.2474539465051344,-0.1100107510873547,-0.01263514460694647,-0.038731584702672156,0.24878365946011996,0.04134523849260715,0.14869474040841424,-0.04410547014797734,0.6019224964612583
C12,0.23427095640125012,-0.03201406520397138,-0.2051645327892484,-0.02364172282783285,-0.02919100142456538,0.008308568591388316,-0.04067896234062016,-0.036934505751522725,0.016514003769823243,-0.03127291714109678,-0.020507870181783662,1.0,-0.02886241092708582,0.019110124142993096,-0.01192418462717695,0.1497757994152149,-0.16913383715109956,-0.134092726069115,0.015368694579747943,0.12117075560807564,0.3761928985659771
C13,-0.03597416283957216,0.12815085320393937,-0.007469206771393773,-0.021415495541152928,-0.02643879277216538,0.21588192361576775,0.16501742858900897,-0.03345185790350886,0.01495149696376621,-0.028326301765641198,-0.23545697726881284,-0.04561498116358368,1.0,0.19944571897581023,-0.19753040857234982,-0.03311244642483687,-0.01841732232473353,0.16547337412274338,0.013908745821596397,-0.037706128296107665,-0.18576285662422415
C14,-0.2010035930237604,-0.029878579989589794,0.2069324397972082,-0.02206817405669731,-0.20764663672463382,0.262101354856963,-0.037963159608151706,-0.03446975409840889,0.015406625964355517,-0.029188515297658035,-0.14940609008681704,-0.0470024077585656,0.15521046275042594,1.0,-0.011136126281861426,-0.034120111107748076,-0.30741246643803216,-0.2644269601985884,0.28594093544942145,0.43288580649509756,-0.11069018649564624
C15,-0.03259379616670896,0.14099447305147153,-0.00676563592272529,-0.019402871314188202,-0.0239523701008813,0.00681254271219101,-0.03338317348317006,-0.030309708066466788,0.18835990880858652,-0.2101271646776302,-0.016831699274795695,-0.04132626460876636,-0.21040788658973453,0.01567851726440689,1.0,-0.03000100605192421,-0.0166869865193186,0.03201168474034712,0.012605829508188445,-0.034161206266505366,0.01863827173504733
C16,-0.03486589851227567,-0.028101553860727987,-0.00723604986570198,-0.02075438336020241,-0.025623025892443828,0.007288332497959951,-0.16736811893325815,-0.03242142352283515,0.14755331852716083,-0.027453740838260934,-0.018003743744460208,0.14212615566329062,-0.02533513817370578,0.016770485445790483,-0.010471693496513295,1.0,-0.01784837539923446,-0.0607937784418031,0.01348538396734822,-0.03654437057198624,0.019551859016220807
C17,0.14139335991589977,-0.03169552044052736,-0.00816268872252724,0.18774669286864193,0.2913976247343507,0.0082191865110528,-0.04027616562370823,-0.03656850121724108,-0.40400838115607035,-0.03096644349913234,0.25001454972029435,-0.19866641732396437,-0.028575156421831123,-0.26951866935714774,-0.011812998490759747,-0.03619662412661419,1.0,0.4678148379171768,0.015208755386239566,-0.22567591025405412,0.016949144975161586
C18,-0.027033573074882744,-0.23839184937884506,0.18959373264111729,0.3233786638110469,-0.019866396290170354,0.0056460931754408914,-0.1375082057367683,-0.02514004433651612,-0.3065815336063973,-0.021291048951423606,-0.013962389459118483,-0.20739666598234902,0.11049683956052055,-0.2878308022507975,-0.008125889493939971,-0.11992636560160265,0.4153464025348055,1.0,-0.12927539389130926,-0.19254174312159278,-0.2674206885044608
C19,-0.04259141532231823,-0.03432735720708195,0.1821285170072888,-0.025351579278986063,-0.03129944666890075,0.008908119973528895,-0.14082373883353064,-0.03960521445179816,0.017699879924472053,0.11794070390810181,0.1104184214627934,-0.05400656480215973,-0.030947374297679804,0.29210523994635246,-0.012789989331110793,-0.03920277860522612,-0.021801366359964113,-0.09788238079298371,1.0,0.30535154076577875,0.004930274829598661
C20,-0.1916762255918888,-0.034261975336273426,0.21633077669241563,-0.025301371396818827,-0.031240199800610036,0.008896256592296255,-0.04353750977030081,0.17245592482984937,0.017671776509233853,-0.03347019782563486,-0.021947548964355718,0.10889826401307715,-0.03088829997377862,0.4921974813500953,-0.012761098293316469,-0.03912826436304407,-0.20621560786287255,-0.12243442530681466,0.3664460873600205,1.0,-0.07062914039782547
C21,0.25208644052314966,-0.014768970256301346,-0.04937500562594129,-0.07859296657154775,0.0741802035898721,0.02764974203273695,-0.13263612103509118,-0.11858135827135306,-0.09849060352658143,-0.02348072327063501,0.5975510636203383,0.33922512638876956,-0.2014930755307356,-0.07515439730149405,0.019448429068561684,-0.004792355544457188,0.01163400970061903,-0.21493353544299093,0.038772901399735396,-0.09719766557811528,1.0
